digraph Tree {
node [shape=box, style="filled, rounded", color="black", fontname="helvetica"] ;
edge [fontname="helvetica"] ;
0 [label=<Hour &le; 20.5<br/>gini = 0.496<br/>samples = 895<br/>value = [486, 409]<br/>class = Aware>, fillcolor="#fbebe0"] ;
1 [label=<Device make &le; 88.0<br/>gini = 0.495<br/>samples = 855<br/>value = [470, 385]<br/>class = Aware>, fillcolor="#fae8db"] ;
0 -> 1 [labeldistance=2.5, labelangle=45, headlabel="True"] ;
2 [label=<gini = 0.497<br/>samples = 814<br/>value = [441, 373]<br/>class = Aware>, fillcolor="#fbece0"] ;
1 -> 2 ;
3 [label=<gini = 0.414<br/>samples = 41<br/>value = [29, 12]<br/>class = Aware>, fillcolor="#f0b58b"] ;
1 -> 3 ;
4 [label=<Date of month &le; 8.5<br/>gini = 0.48<br/>samples = 40<br/>value = [16, 24]<br/>class = Not Aware>, fillcolor="#bddef6"] ;
0 -> 4 [labeldistance=2.5, labelangle=-45, headlabel="False"] ;
5 [label=<gini = 0.498<br/>samples = 30<br/>value = [14, 16]<br/>class = Not Aware>, fillcolor="#e6f3fc"] ;
4 -> 5 ;
6 [label=<gini = 0.32<br/>samples = 10<br/>value = [2, 8]<br/>class = Not Aware>, fillcolor="#6ab6ec"] ;
4 -> 6 ;
}